Language model created by QuickLM on Wed Jul 15 05:36:27 EDT 2015
Copyright (c) 1996-2010 Carnegie Mellon University and Alexander I. Rudnicky

The model is in standard ARPA format, designed by Doug Paul while he was at MITRE.

The code that was used to produce this language model is available in Open Source.
Please visit http://www.speech.cs.cmu.edu/tools/ for more information

The (fixed) discount mass is 0.5. The backoffs are computed using the ratio method.
This model based on a corpus of 6 sentences and 8 words

\data\
ngram 1=8
ngram 2=12
ngram 3=6

\1-grams:
-0.7782 </s> -0.3010
-0.7782 <s> -0.2218
-1.5563 FOLLOW -0.2218
-1.5563 HELP -0.2218
-1.5563 ME -0.2218
-1.5563 NO -0.2218
-1.5563 PLEASE -0.2218
-1.5563 YES -0.2218

\2-grams:
-1.0792 <s> FOLLOW 0.0000
-1.0792 <s> HELP 0.0000
-1.0792 <s> ME 0.0000
-1.0792 <s> NO 0.0000
-1.0792 <s> PLEASE 0.0000
-1.0792 <s> YES 0.0000
-0.3010 FOLLOW </s> -0.3010
-0.3010 HELP </s> -0.3010
-0.3010 ME </s> -0.3010
-0.3010 NO </s> -0.3010
-0.3010 PLEASE </s> -0.3010
-0.3010 YES </s> -0.3010

\3-grams:
-0.3010 <s> FOLLOW </s>
-0.3010 <s> HELP </s>
-0.3010 <s> ME </s>
-0.3010 <s> NO </s>
-0.3010 <s> PLEASE </s>
-0.3010 <s> YES </s>

\end\
